<?xml version="1.0"?>
<opencv_storage>
<cascade>
  <stageType>BOOST</stageType>
  <featureType>HAAR</featureType>
  <height>80</height>
  <width>80</width>
  <stageParams>
    <boostType>GAB</boostType>
    <minHitRate>9.9500000476837158e-01</minHitRate>
    <maxFalseAlarm>5.0000000000000000e-01</maxFalseAlarm>
    <weightTrimRate>9.4999999999999996e-01</weightTrimRate>
    <maxDepth>1</maxDepth>
    <maxWeakCount>100</maxWeakCount></stageParams>
  <featureParams>
    <maxCatCount>0</maxCatCount>
    <featSize>1</featSize>
    <mode>BASIC</mode></featureParams>
  <stageNum>6</stageNum>
  <stages>
    <!-- stage 0 -->
    <_>
      <maxWeakCount>15</maxWeakCount>
      <stageThreshold>-1.1088966131210327e+00</stageThreshold>
      <weakClassifiers>
        <_>
          <internalNodes>
            0 -1 107 -8.3301805716473609e-05</internalNodes>
          <leafValues>
            -6.5811967849731445e-01 -8.1272087991237640e-02</leafValues></_>
        <_>
          <internalNodes>
            0 -1 7 4.4726164196617901e-04</internalNodes>
          <leafValues>
            9.3018703162670135e-02 -6.9903045892715454e-01</leafValues></_>
        <_>
          <internalNodes>
            0 -1 22 -1.7701095202937722e-04</internalNodes>
          <leafValues>
            -5.8399760723114014e-01 1.4280021190643311e-01</leafValues></_>
        <_>
          <internalNodes>
            0 -1 115 -6.2576757045462728e-05</internalNodes>
          <leafValues>
            -5.8989685773849487e-01 1.4589561522006989e-01</leafValues></_>
        <_>
          <internalNodes>
            0 -1 91 1.2989945709705353e-02</internalNodes>
          <leafValues>
            -1.4626407623291016e-01 5.4527974128723145e-01</leafValues></_>
        <_>
          <internalNodes>
            0 -1 92 -1.8166054505854845e-03</internalNodes>
          <leafValues>
            -6.5124428272247314e-01 1.1088485270738602e-01</leafValues></_>
        <_>
          <internalNodes>
            0 -1 3 -4.6359054744243622e-02</internalNodes>
          <leafValues>
            4.5041486620903015e-01 -1.6507129371166229e-01</leafValues></_>
        <_>
          <internalNodes>
            0 -1 12 1.9702266901731491e-02</internalNodes>
          <leafValues>
            -1.4647053182125092e-01 5.1157593727111816e-01</leafValues></_>
        <_>
          <internalNodes>
            0 -1 62 2.5346782058477402e-02</internalNodes>
          <leafValues>
            -1.3327090442180634e-01 4.7426915168762207e-01</leafValues></_>
        <_>
          <internalNodes>
            0 -1 111 9.5760915428400040e-05</internalNodes>
          <leafValues>
            1.1374242603778839e-01 -6.3194960355758667e-01</leafValues></_>
        <_>
          <internalNodes>
            0 -1 95 1.0621100664138794e-03</internalNodes>
          <leafValues>
            1.1130531877279282e-01 -5.9552663564682007e-01</leafValues></_>
        <_>
          <internalNodes>
            0 -1 1 -1.9400310702621937e-04</internalNodes>
          <leafValues>
            -5.9374570846557617e-01 1.1494415998458862e-01</leafValues></_>
        <_>
          <internalNodes>
            0 -1 34 -5.1283475477248430e-04</internalNodes>
          <leafValues>
            -5.4089820384979248e-01 9.8008215427398682e-02</leafValues></_>
        <_>
          <internalNodes>
            0 -1 113 1.9348329806234688e-04</internalNodes>
          <leafValues>
            1.3306032121181488e-01 -5.0277984142303467e-01</leafValues></_>
        <_>
          <internalNodes>
            0 -1 36 9.0860645286738873e-04</internalNodes>
          <leafValues>
            8.2426756620407104e-02 -7.0705592632293701e-01</leafValues></_></weakClassifiers></_>
    <!-- stage 1 -->
    <_>
      <maxWeakCount>17</maxWeakCount>
      <stageThreshold>-1.0416926145553589e+00</stageThreshold>
      <weakClassifiers>
        <_>
          <internalNodes>
            0 -1 43 1.6127987764775753e-03</internalNodes>
          <leafValues>
            -5.4625552892684937e-01 1.3872832059860229e-01</leafValues></_>
        <_>
          <internalNodes>
            0 -1 65 2.4751542136073112e-02</internalNodes>
          <leafValues>
            -1.3850629329681396e-01 5.8027267456054688e-01</leafValues></_>
        <_>
          <internalNodes>
            0 -1 68 1.2815516674891114e-03</internalNodes>
          <leafValues>
            7.6709069311618805e-02 -8.2616251707077026e-01</leafValues></_>
        <_>
          <internalNodes>
            0 -1 71 -4.6764598228037357e-03</internalNodes>
          <leafValues>
            4.4336876273155212e-01 -1.2779381871223450e-01</leafValues></_>
        <_>
          <internalNodes>
            0 -1 2 1.5452213119715452e-04</internalNodes>
          <leafValues>
            1.1232388019561768e-01 -6.2988865375518799e-01</leafValues></_>
        <_>
          <internalNodes>
            0 -1 78 -8.4274187684059143e-03</internalNodes>
          <leafValues>
            5.4009765386581421e-01 -1.1691507697105408e-01</leafValues></_>
        <_>
          <internalNodes>
            0 -1 60 -5.2894204854965210e-03</internalNodes>
          <leafValues>
            3.6754968762397766e-01 -1.8943445384502411e-01</leafValues></_>
        <_>
          <internalNodes>
            0 -1 66 -1.1402012314647436e-03</internalNodes>
          <leafValues>
            4.7759002447128296e-01 -1.2826414406299591e-01</leafValues></_>
        <_>
          <internalNodes>
            0 -1 26 6.8998974747955799e-03</internalNodes>
          <leafValues>
            -1.3048490881919861e-01 4.8817837238311768e-01</leafValues></_>
        <_>
          <internalNodes>
            0 -1 32 1.1027380824089050e-03</internalNodes>
          <leafValues>
            9.5874175429344177e-02 -6.8024134635925293e-01</leafValues></_>
        <_>
          <internalNodes>
            0 -1 63 7.9131196253001690e-04</internalNodes>
          <leafValues>
            8.1916637718677521e-02 -7.5290083885192871e-01</leafValues></_>
        <_>
          <internalNodes>
            0 -1 61 -1.3880312908440828e-03</internalNodes>
          <leafValues>
            -7.3427563905715942e-01 8.0118261277675629e-02</leafValues></_>
        <_>
          <internalNodes>
            0 -1 102 -6.3885294366627932e-05</internalNodes>
          <leafValues>
            -6.7334491014480591e-01 7.9420760273933411e-02</leafValues></_>
        <_>
          <internalNodes>
            0 -1 96 2.4481970467604697e-04</internalNodes>
          <leafValues>
            1.0623679310083389e-01 -5.4873180389404297e-01</leafValues></_>
        <_>
          <internalNodes>
            0 -1 70 -4.3507679365575314e-03</internalNodes>
          <leafValues>
            4.9180033802986145e-01 -1.3159814476966858e-01</leafValues></_>
        <_>
          <internalNodes>
            0 -1 0 -1.2820910196751356e-03</internalNodes>
          <leafValues>
            -4.6007418632507324e-01 1.3997527956962585e-01</leafValues></_>
        <_>
          <internalNodes>
            0 -1 90 1.5479866415262222e-03</internalNodes>
          <leafValues>
            7.2319462895393372e-02 -7.1454942226409912e-01</leafValues></_></weakClassifiers></_>
    <!-- stage 2 -->
    <_>
      <maxWeakCount>18</maxWeakCount>
      <stageThreshold>-1.0594384670257568e+00</stageThreshold>
      <weakClassifiers>
        <_>
          <internalNodes>
            0 -1 40 3.1345374882221222e-02</internalNodes>
          <leafValues>
            -4.6557039022445679e-01 8.4529504179954529e-02</leafValues></_>
        <_>
          <internalNodes>
            0 -1 109 -5.5221421644091606e-04</internalNodes>
          <leafValues>
            -5.0380557775497437e-01 1.0361535102128983e-01</leafValues></_>
        <_>
          <internalNodes>
            0 -1 38 4.8337772022932768e-04</internalNodes>
          <leafValues>
            1.5149214863777161e-01 -5.2014154195785522e-01</leafValues></_>
        <_>
          <internalNodes>
            0 -1 75 -2.9981022235006094e-03</internalNodes>
          <leafValues>
            4.4466960430145264e-01 -1.7725914716720581e-01</leafValues></_>
        <_>
          <internalNodes>
            0 -1 21 -1.4330663543660194e-04</internalNodes>
          <leafValues>
            -5.5800867080688477e-01 1.4456197619438171e-01</leafValues></_>
        <_>
          <internalNodes>
            0 -1 98 1.0555462213233113e-03</internalNodes>
          <leafValues>
            7.5350686907768250e-02 -7.4365276098251343e-01</leafValues></_>
        <_>
          <internalNodes>
            0 -1 80 1.0050585493445396e-02</internalNodes>
          <leafValues>
            -1.6725409030914307e-01 5.0075769424438477e-01</leafValues></_>
        <_>
          <internalNodes>
            0 -1 48 5.8403454022482038e-04</internalNodes>
          <leafValues>
            1.4059469103813171e-01 -5.2517801523208618e-01</leafValues></_>
        <_>
          <internalNodes>
            0 -1 64 6.3692627009004354e-04</internalNodes>
          <leafValues>
            -1.4993719756603241e-01 4.6323153376579285e-01</leafValues></_>
        <_>
          <internalNodes>
            0 -1 18 -1.9174523651599884e-02</internalNodes>
          <leafValues>
            3.9545711874961853e-01 -1.4352051913738251e-01</leafValues></_>
        <_>
          <internalNodes>
            0 -1 10 3.9881640113890171e-03</internalNodes>
          <leafValues>
            -1.0061613470315933e-01 6.2738776206970215e-01</leafValues></_>
        <_>
          <internalNodes>
            0 -1 110 -1.1889166489709169e-04</internalNodes>
          <leafValues>
            -6.9578135013580322e-01 1.0104306042194366e-01</leafValues></_>
        <_>
          <internalNodes>
            0 -1 33 1.0606897994875908e-02</internalNodes>
          <leafValues>
            -2.0326229929924011e-01 3.1892737746238708e-01</leafValues></_>
        <_>
          <internalNodes>
            0 -1 49 5.9300875291228294e-03</internalNodes>
          <leafValues>
            -1.0533356666564941e-01 5.9591335058212280e-01</leafValues></_>
        <_>
          <internalNodes>
            0 -1 51 1.5273271128535271e-03</internalNodes>
          <leafValues>
            -1.5563145279884338e-01 3.6567264795303345e-01</leafValues></_>
        <_>
          <internalNodes>
            0 -1 54 6.9611018989235163e-04</internalNodes>
          <leafValues>
            1.2850421667098999e-01 -5.5501246452331543e-01</leafValues></_>
        <_>
          <internalNodes>
            0 -1 41 4.1165454313158989e-03</internalNodes>
          <leafValues>
            -1.3915993273258209e-01 5.0292783975601196e-01</leafValues></_>
        <_>
          <internalNodes>
            0 -1 53 -1.3356879353523254e-03</internalNodes>
          <leafValues>
            -7.2821950912475586e-01 9.1327108442783356e-02</leafValues></_></weakClassifiers></_>
    <!-- stage 3 -->
    <_>
      <maxWeakCount>22</maxWeakCount>
      <stageThreshold>-1.1267373561859131e+00</stageThreshold>
      <weakClassifiers>
        <_>
          <internalNodes>
            0 -1 77 -1.4176829718053341e-02</internalNodes>
          <leafValues>
            2.0000000298023224e-01 -3.5813954472541809e-01</leafValues></_>
        <_>
          <internalNodes>
            0 -1 9 1.0145358741283417e-01</internalNodes>
          <leafValues>
            -1.6479399800300598e-01 3.6058270931243896e-01</leafValues></_>
        <_>
          <internalNodes>
            0 -1 89 3.3154006814584136e-04</internalNodes>
          <leafValues>
            8.7086506187915802e-02 -5.8206719160079956e-01</leafValues></_>
        <_>
          <internalNodes>
            0 -1 39 7.6188344974070787e-04</internalNodes>
          <leafValues>
            1.0868380218744278e-01 -7.3592811822891235e-01</leafValues></_>
        <_>
          <internalNodes>
            0 -1 114 8.9202850358560681e-04</internalNodes>
          <leafValues>
            9.0660192072391510e-02 -5.9122025966644287e-01</leafValues></_>
        <_>
          <internalNodes>
            0 -1 46 -1.0465770959854126e-02</internalNodes>
          <leafValues>
            4.7825732827186584e-01 -1.0960473865270615e-01</leafValues></_>
        <_>
          <internalNodes>
            0 -1 29 -3.0913134105503559e-03</internalNodes>
          <leafValues>
            5.1784318685531616e-01 -1.0653956979513168e-01</leafValues></_>
        <_>
          <internalNodes>
            0 -1 14 4.8549455823376775e-04</internalNodes>
          <leafValues>
            1.0953423380851746e-01 -4.9926450848579407e-01</leafValues></_>
        <_>
          <internalNodes>
            0 -1 13 -3.5187846515327692e-04</internalNodes>
          <leafValues>
            -4.5108580589294434e-01 1.2759044766426086e-01</leafValues></_>
        <_>
          <internalNodes>
            0 -1 84 -2.3216935805976391e-03</internalNodes>
          <leafValues>
            5.1925939321517944e-01 -1.0797415673732758e-01</leafValues></_>
        <_>
          <internalNodes>
            0 -1 28 1.4617547094530892e-05</internalNodes>
          <leafValues>
            -2.1659742295742035e-01 2.6076748967170715e-01</leafValues></_>
        <_>
          <internalNodes>
            0 -1 4 1.5087082982063293e-02</internalNodes>
          <leafValues>
            -1.1222937703132629e-01 4.8376119136810303e-01</leafValues></_>
        <_>
          <internalNodes>
            0 -1 31 -1.4102629385888577e-02</internalNodes>
          <leafValues>
            4.8276564478874207e-01 -1.2096677720546722e-01</leafValues></_>
        <_>
          <internalNodes>
            0 -1 47 -3.9748121052980423e-03</internalNodes>
          <leafValues>
            5.9780269861221313e-01 -1.0270381718873978e-01</leafValues></_>
        <_>
          <internalNodes>
            0 -1 42 -5.0216724048368633e-05</internalNodes>
          <leafValues>
            -6.0981315374374390e-01 1.1433095484972000e-01</leafValues></_>
        <_>
          <internalNodes>
            0 -1 82 4.9707171274349093e-04</internalNodes>
          <leafValues>
            9.2254586517810822e-02 -4.9982035160064697e-01</leafValues></_>
        <_>
          <internalNodes>
            0 -1 76 -1.1667662765830755e-03</internalNodes>
          <leafValues>
            3.7217953801155090e-01 -1.5053558349609375e-01</leafValues></_>
        <_>
          <internalNodes>
            0 -1 74 1.6609004233032465e-03</internalNodes>
          <leafValues>
            -1.6165079176425934e-01 3.6121839284896851e-01</leafValues></_>
        <_>
          <internalNodes>
            0 -1 118 3.9323051169048995e-05</internalNodes>
          <leafValues>
            1.0183565318584442e-01 -5.7168382406234741e-01</leafValues></_>
        <_>
          <internalNodes>
            0 -1 52 -6.2401397153735161e-03</internalNodes>
          <leafValues>
            3.9438304305076599e-01 -1.6110455989837646e-01</leafValues></_>
        <_>
          <internalNodes>
            0 -1 58 5.3923972882330418e-04</internalNodes>
          <leafValues>
            9.2322938144207001e-02 -5.9798181056976318e-01</leafValues></_>
        <_>
          <internalNodes>
            0 -1 59 -2.8622359968721867e-04</internalNodes>
          <leafValues>
            -6.0721164941787720e-01 8.5392877459526062e-02</leafValues></_></weakClassifiers></_>
    <!-- stage 4 -->
    <_>
      <maxWeakCount>24</maxWeakCount>
      <stageThreshold>-1.0127325057983398e+00</stageThreshold>
      <weakClassifiers>
        <_>
          <internalNodes>
            0 -1 100 -1.5993146225810051e-02</internalNodes>
          <leafValues>
            3.0501931905746460e-01 -3.5719612240791321e-01</leafValues></_>
        <_>
          <internalNodes>
            0 -1 16 -4.2436557123437524e-04</internalNodes>
          <leafValues>
            -6.1801987886428833e-01 7.3107287287712097e-02</leafValues></_>
        <_>
          <internalNodes>
            0 -1 17 1.9114039605483413e-04</internalNodes>
          <leafValues>
            1.5162248909473419e-01 -4.3545466661453247e-01</leafValues></_>
        <_>
          <internalNodes>
            0 -1 50 2.6491330936551094e-03</internalNodes>
          <leafValues>
            -1.6985078155994415e-01 4.0761891007423401e-01</leafValues></_>
        <_>
          <internalNodes>
            0 -1 99 -4.9049891531467438e-03</internalNodes>
          <leafValues>
            5.0551259517669678e-01 -7.4985109269618988e-02</leafValues></_>
        <_>
          <internalNodes>
            0 -1 23 -1.4036431908607483e-02</internalNodes>
          <leafValues>
            5.1616477966308594e-01 -1.0146443545818329e-01</leafValues></_>
        <_>
          <internalNodes>
            0 -1 87 3.7949934601783752e-02</internalNodes>
          <leafValues>
            -8.2914151251316071e-02 6.3259243965148926e-01</leafValues></_>
        <_>
          <internalNodes>
            0 -1 88 4.3276450596749783e-03</internalNodes>
          <leafValues>
            -1.2957458198070526e-01 4.4443970918655396e-01</leafValues></_>
        <_>
          <internalNodes>
            0 -1 30 -1.2019345536828041e-02</internalNodes>
          <leafValues>
            5.3066700696945190e-01 -1.0029177367687225e-01</leafValues></_>
        <_>
          <internalNodes>
            0 -1 117 -5.6557310745120049e-04</internalNodes>
          <leafValues>
            -6.1816889047622681e-01 1.1311768740415573e-01</leafValues></_>
        <_>
          <internalNodes>
            0 -1 105 4.4844613876193762e-04</internalNodes>
          <leafValues>
            7.6229572296142578e-02 -5.7956838607788086e-01</leafValues></_>
        <_>
          <internalNodes>
            0 -1 97 -4.0744654834270477e-02</internalNodes>
          <leafValues>
            4.2152249813079834e-01 -1.2255202233791351e-01</leafValues></_>
        <_>
          <internalNodes>
            0 -1 73 5.3985565900802612e-03</internalNodes>
          <leafValues>
            -1.1811191588640213e-01 4.3857884407043457e-01</leafValues></_>
        <_>
          <internalNodes>
            0 -1 67 -1.0341482236981392e-02</internalNodes>
          <leafValues>
            -7.3997688293457031e-01 6.5190471708774567e-02</leafValues></_>
        <_>
          <internalNodes>
            0 -1 24 8.3762628491967916e-04</internalNodes>
          <leafValues>
            1.0256313532590866e-01 -4.9513459205627441e-01</leafValues></_>
        <_>
          <internalNodes>
            0 -1 20 -5.3066876716911793e-03</internalNodes>
          <leafValues>
            6.6422498226165771e-01 -9.4610854983329773e-02</leafValues></_>
        <_>
          <internalNodes>
            0 -1 106 -1.5042888117022812e-04</internalNodes>
          <leafValues>
            -5.2089124917984009e-01 1.1418757587671280e-01</leafValues></_>
        <_>
          <internalNodes>
            0 -1 5 -2.2583261132240295e-02</internalNodes>
          <leafValues>
            4.4742748141288757e-01 -1.3131791353225708e-01</leafValues></_>
        <_>
          <internalNodes>
            0 -1 104 4.8239966417895630e-05</internalNodes>
          <leafValues>
            1.8769480288028717e-01 -2.8964599967002869e-01</leafValues></_>
        <_>
          <internalNodes>
            0 -1 35 -2.9655486345291138e-02</internalNodes>
          <leafValues>
            4.0317964553833008e-01 -1.3067208230495453e-01</leafValues></_>
        <_>
          <internalNodes>
            0 -1 19 4.4249072670936584e-02</internalNodes>
          <leafValues>
            -1.1344747245311737e-01 5.8041989803314209e-01</leafValues></_>
        <_>
          <internalNodes>
            0 -1 15 -3.5862714867107570e-05</internalNodes>
          <leafValues>
            -6.4035171270370483e-01 9.9916160106658936e-02</leafValues></_>
        <_>
          <internalNodes>
            0 -1 25 -1.0889079421758652e-03</internalNodes>
          <leafValues>
            -6.2108576297760010e-01 7.3635473847389221e-02</leafValues></_>
        <_>
          <internalNodes>
            0 -1 83 -2.5518241454847157e-04</internalNodes>
          <leafValues>
            4.1955384612083435e-01 -1.3115447759628296e-01</leafValues></_></weakClassifiers></_>
    <!-- stage 5 -->
    <_>
      <maxWeakCount>23</maxWeakCount>
      <stageThreshold>-1.1004923582077026e+00</stageThreshold>
      <weakClassifiers>
        <_>
          <internalNodes>
            0 -1 69 -1.5661904588341713e-02</internalNodes>
          <leafValues>
            6.2105262279510498e-01 -3.0498337745666504e-01</leafValues></_>
        <_>
          <internalNodes>
            0 -1 55 -1.6806451603770256e-03</internalNodes>
          <leafValues>
            4.9882245063781738e-01 -1.3417989015579224e-01</leafValues></_>
        <_>
          <internalNodes>
            0 -1 86 -2.3799844086170197e-02</internalNodes>
          <leafValues>
            3.4133151173591614e-01 -1.5581411123275757e-01</leafValues></_>
        <_>
          <internalNodes>
            0 -1 8 3.1903060153126717e-04</internalNodes>
          <leafValues>
            1.0460675507783890e-01 -6.4873546361923218e-01</leafValues></_>
        <_>
          <internalNodes>
            0 -1 57 2.0953444764018059e-03</internalNodes>
          <leafValues>
            -7.0117905735969543e-02 5.5607050657272339e-01</leafValues></_>
        <_>
          <internalNodes>
            0 -1 11 4.3130241334438324e-02</internalNodes>
          <leafValues>
            -1.0372821241617203e-01 5.6824058294296265e-01</leafValues></_>
        <_>
          <internalNodes>
            0 -1 79 -4.2531425133347511e-03</internalNodes>
          <leafValues>
            4.0338137745857239e-01 -1.2307642400264740e-01</leafValues></_>
        <_>
          <internalNodes>
            0 -1 116 -5.2242144010961056e-04</internalNodes>
          <leafValues>
            -5.1296067237854004e-01 1.1143151670694351e-01</leafValues></_>
        <_>
          <internalNodes>
            0 -1 94 3.9845920400694013e-04</internalNodes>
          <leafValues>
            1.0884336382150650e-01 -4.9740466475486755e-01</leafValues></_>
        <_>
          <internalNodes>
            0 -1 72 8.8019622489809990e-04</internalNodes>
          <leafValues>
            -1.0619367659091949e-01 4.5238113403320312e-01</leafValues></_>
        <_>
          <internalNodes>
            0 -1 56 2.3485676501877606e-04</internalNodes>
          <leafValues>
            9.5354251563549042e-02 -5.6079781055450439e-01</leafValues></_>
        <_>
          <internalNodes>
            0 -1 27 2.1686018444597721e-03</internalNodes>
          <leafValues>
            -1.8787215650081635e-01 2.8216791152954102e-01</leafValues></_>
        <_>
          <internalNodes>
            0 -1 93 -1.4502747217193246e-04</internalNodes>
          <leafValues>
            -5.3875565528869629e-01 1.0718668252229691e-01</leafValues></_>
        <_>
          <internalNodes>
            0 -1 103 -8.1721376627683640e-03</internalNodes>
          <leafValues>
            7.5774520635604858e-01 -8.1984505057334900e-02</leafValues></_>
        <_>
          <internalNodes>
            0 -1 108 5.2379851695150137e-04</internalNodes>
          <leafValues>
            1.4529165625572205e-01 -3.7275868654251099e-01</leafValues></_>
        <_>
          <internalNodes>
            0 -1 85 -1.9995874026790261e-04</internalNodes>
          <leafValues>
            3.3240699768066406e-01 -1.6744494438171387e-01</leafValues></_>
        <_>
          <internalNodes>
            0 -1 44 3.1996779143810272e-03</internalNodes>
          <leafValues>
            -8.7021276354789734e-02 5.4888480901718140e-01</leafValues></_>
        <_>
          <internalNodes>
            0 -1 37 2.0160796120762825e-03</internalNodes>
          <leafValues>
            -1.0764720290899277e-01 4.5937570929527283e-01</leafValues></_>
        <_>
          <internalNodes>
            0 -1 6 -4.3857097625732422e-04</internalNodes>
          <leafValues>
            -7.7393579483032227e-01 7.4998877942562103e-02</leafValues></_>
        <_>
          <internalNodes>
            0 -1 112 -6.3470911300100852e-06</internalNodes>
          <leafValues>
            2.8168526291847229e-01 -2.0097732543945312e-01</leafValues></_>
        <_>
          <internalNodes>
            0 -1 45 1.1942118871957064e-03</internalNodes>
          <leafValues>
            9.0249232947826385e-02 -6.2430238723754883e-01</leafValues></_>
        <_>
          <internalNodes>
            0 -1 81 -4.6778895193710923e-04</internalNodes>
          <leafValues>
            -5.7927399873733521e-01 8.2484081387519836e-02</leafValues></_>
        <_>
          <internalNodes>
            0 -1 101 7.8849234341760166e-06</internalNodes>
          <leafValues>
            -1.7169941961765289e-01 3.1195595860481262e-01</leafValues></_></weakClassifiers></_></stages>
  <features>
    <_>
      <rects>
        <_>
          0 60 2 20 -1.</_>
        <_>
          0 70 2 10 2.</_></rects>
      <tilted>0</tilted></_>
    <_>
      <rects>
        <_>
          1 41 11 3 -1.</_>
        <_>
          1 42 11 1 3.</_></rects>
      <tilted>0</tilted></_>
    <_>
      <rects>
        <_>
          1 54 4 3 -1.</_>
        <_>
          1 55 4 1 3.</_></rects>
      <tilted>0</tilted></_>
    <_>
      <rects>
        <_>
          2 23 48 28 -1.</_>
        <_>
          18 23 16 28 3.</_></rects>
      <tilted>0</tilted></_>
    <_>
      <rects>
        <_>
          2 26 22 38 -1.</_>
        <_>
          2 26 11 19 2.</_>
        <_>
          13 45 11 19 2.</_></rects>
      <tilted>0</tilted></_>
    <_>
      <rects>
        <_>
          2 32 22 28 -1.</_>
        <_>
          13 32 11 28 2.</_></rects>
      <tilted>0</tilted></_>
    <_>
      <rects>
        <_>
          3 28 17 2 -1.</_>
        <_>
          3 29 17 1 2.</_></rects>
      <tilted>0</tilted></_>
    <_>
      <rects>
        <_>
          3 39 16 3 -1.</_>
        <_>
          3 40 16 1 3.</_></rects>
      <tilted>0</tilted></_>
    <_>
      <rects>
        <_>
          3 77 12 3 -1.</_>
        <_>
          3 78 12 1 3.</_></rects>
      <tilted>0</tilted></_>
    <_>
      <rects>
        <_>
          4 32 58 46 -1.</_>
        <_>
          4 55 58 23 2.</_></rects>
      <tilted>0</tilted></_>
    <_>
      <rects>
        <_>
          4 38 18 3 -1.</_>
        <_>
          13 38 9 3 2.</_></rects>
      <tilted>0</tilted></_>
    <_>
      <rects>
        <_>
          4 40 36 36 -1.</_>
        <_>
          4 40 18 18 2.</_>
        <_>
          22 58 18 18 2.</_></rects>
      <tilted>0</tilted></_>
    <_>
      <rects>
        <_>
          4 41 48 8 -1.</_>
        <_>
          20 41 16 8 3.</_></rects>
      <tilted>0</tilted></_>
    <_>
      <rects>
        <_>
          5 11 3 26 -1.</_>
        <_>
          6 11 1 26 3.</_></rects>
      <tilted>0</tilted></_>
    <_>
      <rects>
        <_>
          5 14 3 29 -1.</_>
        <_>
          6 14 1 29 3.</_></rects>
      <tilted>0</tilted></_>
    <_>
      <rects>
        <_>
          5 21 2 2 -1.</_>
        <_>
          5 21 1 1 2.</_>
        <_>
          6 22 1 1 2.</_></rects>
      <tilted>0</tilted></_>
    <_>
      <rects>
        <_>
          5 59 3 18 -1.</_>
        <_>
          6 59 1 18 3.</_></rects>
      <tilted>0</tilted></_>
    <_>
      <rects>
        <_>
          5 65 3 11 -1.</_>
        <_>
          6 65 1 11 3.</_></rects>
      <tilted>0</tilted></_>
    <_>
      <rects>
        <_>
          6 27 20 45 -1.</_>
        <_>
          16 27 10 45 2.</_></rects>
      <tilted>0</tilted></_>
    <_>
      <rects>
        <_>
          7 20 48 15 -1.</_>
        <_>
          23 20 16 15 3.</_></rects>
      <tilted>0</tilted></_>
    <_>
      <rects>
        <_>
          7 47 10 28 -1.</_>
        <_>
          7 47 5 14 2.</_>
        <_>
          12 61 5 14 2.</_></rects>
      <tilted>0</tilted></_>
    <_>
      <rects>
        <_>
          7 77 7 2 -1.</_>
        <_>
          7 78 7 1 2.</_></rects>
      <tilted>0</tilted></_>
    <_>
      <rects>
        <_>
          11 12 3 5 -1.</_>
        <_>
          12 12 1 5 3.</_></rects>
      <tilted>0</tilted></_>
    <_>
      <rects>
        <_>
          11 40 36 6 -1.</_>
        <_>
          23 40 12 6 3.</_></rects>
      <tilted>0</tilted></_>
    <_>
      <rects>
        <_>
          13 5 3 64 -1.</_>
        <_>
          14 5 1 64 3.</_></rects>
      <tilted>0</tilted></_>
    <_>
      <rects>
        <_>
          13 7 3 49 -1.</_>
        <_>
          14 7 1 49 3.</_></rects>
      <tilted>0</tilted></_>
    <_>
      <rects>
        <_>
          14 20 12 38 -1.</_>
        <_>
          14 20 6 19 2.</_>
        <_>
          20 39 6 19 2.</_></rects>
      <tilted>0</tilted></_>
    <_>
      <rects>
        <_>
          14 36 3 42 -1.</_>
        <_>
          14 57 3 21 2.</_></rects>
      <tilted>0</tilted></_>
    <_>
      <rects>
        <_>
          14 68 5 8 -1.</_>
        <_>
          14 72 5 4 2.</_></rects>
      <tilted>0</tilted></_>
    <_>
      <rects>
        <_>
          15 16 8 26 -1.</_>
        <_>
          15 16 4 13 2.</_>
        <_>
          19 29 4 13 2.</_></rects>
      <tilted>0</tilted></_>
    <_>
      <rects>
        <_>
          15 41 18 30 -1.</_>
        <_>
          15 41 9 15 2.</_>
        <_>
          24 56 9 15 2.</_></rects>
      <tilted>0</tilted></_>
    <_>
      <rects>
        <_>
          15 43 22 32 -1.</_>
        <_>
          15 43 11 16 2.</_>
        <_>
          26 59 11 16 2.</_></rects>
      <tilted>0</tilted></_>
    <_>
      <rects>
        <_>
          16 17 3 44 -1.</_>
        <_>
          17 17 1 44 3.</_></rects>
      <tilted>0</tilted></_>
    <_>
      <rects>
        <_>
          16 35 17 32 -1.</_>
        <_>
          16 51 17 16 2.</_></rects>
      <tilted>0</tilted></_>
    <_>
      <rects>
        <_>
          17 10 27 3 -1.</_>
        <_>
          17 11 27 1 3.</_></rects>
      <tilted>0</tilted></_>
    <_>
      <rects>
        <_>
          18 18 39 33 -1.</_>
        <_>
          31 18 13 33 3.</_></rects>
      <tilted>0</tilted></_>
    <_>
      <rects>
        <_>
          19 4 3 24 -1.</_>
        <_>
          20 4 1 24 3.</_></rects>
      <tilted>0</tilted></_>
    <_>
      <rects>
        <_>
          20 17 14 12 -1.</_>
        <_>
          20 17 7 6 2.</_>
        <_>
          27 23 7 6 2.</_></rects>
      <tilted>0</tilted></_>
    <_>
      <rects>
        <_>
          20 40 3 26 -1.</_>
        <_>
          21 40 1 26 3.</_></rects>
      <tilted>0</tilted></_>
    <_>
      <rects>
        <_>
          21 11 3 20 -1.</_>
        <_>
          22 11 1 20 3.</_></rects>
      <tilted>0</tilted></_>
    <_>
      <rects>
        <_>
          21 28 48 46 -1.</_>
        <_>
          21 51 48 23 2.</_></rects>
      <tilted>0</tilted></_>
    <_>
      <rects>
        <_>
          21 64 11 14 -1.</_>
        <_>
          21 71 11 7 2.</_></rects>
      <tilted>0</tilted></_>
    <_>
      <rects>
        <_>
          21 78 3 1 -1.</_>
        <_>
          22 78 1 1 3.</_></rects>
      <tilted>0</tilted></_>
    <_>
      <rects>
        <_>
          22 20 50 58 -1.</_>
        <_>
          22 49 50 29 2.</_></rects>
      <tilted>0</tilted></_>
    <_>
      <rects>
        <_>
          22 42 10 16 -1.</_>
        <_>
          22 42 5 8 2.</_>
        <_>
          27 50 5 8 2.</_></rects>
      <tilted>0</tilted></_>
    <_>
      <rects>
        <_>
          24 6 3 65 -1.</_>
        <_>
          25 6 1 65 3.</_></rects>
      <tilted>0</tilted></_>
    <_>
      <rects>
        <_>
          24 33 27 12 -1.</_>
        <_>
          33 33 9 12 3.</_></rects>
      <tilted>0</tilted></_>
    <_>
      <rects>
        <_>
          25 5 6 52 -1.</_>
        <_>
          25 5 3 26 2.</_>
        <_>
          28 31 3 26 2.</_></rects>
      <tilted>0</tilted></_>
    <_>
      <rects>
        <_>
          25 10 3 25 -1.</_>
        <_>
          26 10 1 25 3.</_></rects>
      <tilted>0</tilted></_>
    <_>
      <rects>
        <_>
          25 19 3 28 -1.</_>
        <_>
          25 33 3 14 2.</_></rects>
      <tilted>0</tilted></_>
    <_>
      <rects>
        <_>
          25 30 8 26 -1.</_>
        <_>
          25 30 4 13 2.</_>
        <_>
          29 43 4 13 2.</_></rects>
      <tilted>0</tilted></_>
    <_>
      <rects>
        <_>
          26 29 12 14 -1.</_>
        <_>
          26 29 6 7 2.</_>
        <_>
          32 36 6 7 2.</_></rects>
      <tilted>0</tilted></_>
    <_>
      <rects>
        <_>
          28 35 7 33 -1.</_>
        <_>
          28 46 7 11 3.</_></rects>
      <tilted>0</tilted></_>
    <_>
      <rects>
        <_>
          29 3 3 43 -1.</_>
        <_>
          30 3 1 43 3.</_></rects>
      <tilted>0</tilted></_>
    <_>
      <rects>
        <_>
          29 19 3 29 -1.</_>
        <_>
          30 19 1 29 3.</_></rects>
      <tilted>0</tilted></_>
    <_>
      <rects>
        <_>
          32 28 10 10 -1.</_>
        <_>
          32 28 5 5 2.</_>
        <_>
          37 33 5 5 2.</_></rects>
      <tilted>0</tilted></_>
    <_>
      <rects>
        <_>
          33 0 22 2 -1.</_>
        <_>
          33 0 11 1 2.</_>
        <_>
          44 1 11 1 2.</_></rects>
      <tilted>0</tilted></_>
    <_>
      <rects>
        <_>
          33 15 12 10 -1.</_>
        <_>
          33 15 6 5 2.</_>
        <_>
          39 20 6 5 2.</_></rects>
      <tilted>0</tilted></_>
    <_>
      <rects>
        <_>
          33 54 3 25 -1.</_>
        <_>
          34 54 1 25 3.</_></rects>
      <tilted>0</tilted></_>
    <_>
      <rects>
        <_>
          33 62 3 16 -1.</_>
        <_>
          34 62 1 16 3.</_></rects>
      <tilted>0</tilted></_>
    <_>
      <rects>
        <_>
          35 34 4 42 -1.</_>
        <_>
          35 48 4 14 3.</_></rects>
      <tilted>0</tilted></_>
    <_>
      <rects>
        <_>
          36 17 3 59 -1.</_>
        <_>
          37 17 1 59 3.</_></rects>
      <tilted>0</tilted></_>
    <_>
      <rects>
        <_>
          36 23 22 30 -1.</_>
        <_>
          36 38 22 15 2.</_></rects>
      <tilted>0</tilted></_>
    <_>
      <rects>
        <_>
          36 29 34 3 -1.</_>
        <_>
          36 30 34 1 3.</_></rects>
      <tilted>0</tilted></_>
    <_>
      <rects>
        <_>
          37 31 6 10 -1.</_>
        <_>
          37 31 3 5 2.</_>
        <_>
          40 36 3 5 2.</_></rects>
      <tilted>0</tilted></_>
    <_>
      <rects>
        <_>
          38 14 5 57 -1.</_>
        <_>
          38 33 5 19 3.</_></rects>
      <tilted>0</tilted></_>
    <_>
      <rects>
        <_>
          39 31 6 18 -1.</_>
        <_>
          39 31 3 9 2.</_>
        <_>
          42 40 3 9 2.</_></rects>
      <tilted>0</tilted></_>
    <_>
      <rects>
        <_>
          40 7 9 72 -1.</_>
        <_>
          43 7 3 72 3.</_></rects>
      <tilted>0</tilted></_>
    <_>
      <rects>
        <_>
          40 11 3 46 -1.</_>
        <_>
          41 11 1 46 3.</_></rects>
      <tilted>0</tilted></_>
    <_>
      <rects>
        <_>
          40 20 16 26 -1.</_>
        <_>
          40 20 8 13 2.</_>
        <_>
          48 33 8 13 2.</_></rects>
      <tilted>0</tilted></_>
    <_>
      <rects>
        <_>
          40 22 12 22 -1.</_>
        <_>
          40 22 6 11 2.</_>
        <_>
          46 33 6 11 2.</_></rects>
      <tilted>0</tilted></_>
    <_>
      <rects>
        <_>
          41 23 4 33 -1.</_>
        <_>
          41 34 4 11 3.</_></rects>
      <tilted>0</tilted></_>
    <_>
      <rects>
        <_>
          42 9 30 1 -1.</_>
        <_>
          52 9 10 1 3.</_></rects>
      <tilted>0</tilted></_>
    <_>
      <rects>
        <_>
          42 62 13 18 -1.</_>
        <_>
          42 71 13 9 2.</_></rects>
      <tilted>0</tilted></_>
    <_>
      <rects>
        <_>
          45 16 7 18 -1.</_>
        <_>
          45 22 7 6 3.</_></rects>
      <tilted>0</tilted></_>
    <_>
      <rects>
        <_>
          45 23 16 14 -1.</_>
        <_>
          45 23 8 7 2.</_>
        <_>
          53 30 8 7 2.</_></rects>
      <tilted>0</tilted></_>
    <_>
      <rects>
        <_>
          45 27 24 8 -1.</_>
        <_>
          45 27 12 4 2.</_>
        <_>
          57 31 12 4 2.</_></rects>
      <tilted>0</tilted></_>
    <_>
      <rects>
        <_>
          46 19 22 34 -1.</_>
        <_>
          46 19 11 17 2.</_>
        <_>
          57 36 11 17 2.</_></rects>
      <tilted>0</tilted></_>
    <_>
      <rects>
        <_>
          47 24 18 24 -1.</_>
        <_>
          47 24 9 12 2.</_>
        <_>
          56 36 9 12 2.</_></rects>
      <tilted>0</tilted></_>
    <_>
      <rects>
        <_>
          47 28 18 18 -1.</_>
        <_>
          47 28 9 9 2.</_>
        <_>
          56 37 9 9 2.</_></rects>
      <tilted>0</tilted></_>
    <_>
      <rects>
        <_>
          47 37 20 26 -1.</_>
        <_>
          47 37 10 13 2.</_>
        <_>
          57 50 10 13 2.</_></rects>
      <tilted>0</tilted></_>
    <_>
      <rects>
        <_>
          48 77 15 1 -1.</_>
        <_>
          53 77 5 1 3.</_></rects>
      <tilted>0</tilted></_>
    <_>
      <rects>
        <_>
          49 9 3 37 -1.</_>
        <_>
          50 9 1 37 3.</_></rects>
      <tilted>0</tilted></_>
    <_>
      <rects>
        <_>
          50 14 4 10 -1.</_>
        <_>
          50 14 2 5 2.</_>
        <_>
          52 19 2 5 2.</_></rects>
      <tilted>0</tilted></_>
    <_>
      <rects>
        <_>
          50 43 8 18 -1.</_>
        <_>
          50 43 4 9 2.</_>
        <_>
          54 52 4 9 2.</_></rects>
      <tilted>0</tilted></_>
    <_>
      <rects>
        <_>
          51 22 4 12 -1.</_>
        <_>
          51 22 2 6 2.</_>
        <_>
          53 28 2 6 2.</_></rects>
      <tilted>0</tilted></_>
    <_>
      <rects>
        <_>
          51 24 28 56 -1.</_>
        <_>
          51 24 14 28 2.</_>
        <_>
          65 52 14 28 2.</_></rects>
      <tilted>0</tilted></_>
    <_>
      <rects>
        <_>
          52 10 26 50 -1.</_>
        <_>
          52 10 13 25 2.</_>
        <_>
          65 35 13 25 2.</_></rects>
      <tilted>0</tilted></_>
    <_>
      <rects>
        <_>
          52 28 2 34 -1.</_>
        <_>
          52 45 2 17 2.</_></rects>
      <tilted>0</tilted></_>
    <_>
      <rects>
        <_>
          52 52 3 12 -1.</_>
        <_>
          53 52 1 12 3.</_></rects>
      <tilted>0</tilted></_>
    <_>
      <rects>
        <_>
          53 6 3 71 -1.</_>
        <_>
          54 6 1 71 3.</_></rects>
      <tilted>0</tilted></_>
    <_>
      <rects>
        <_>
          53 33 4 46 -1.</_>
        <_>
          53 56 4 23 2.</_></rects>
      <tilted>0</tilted></_>
    <_>
      <rects>
        <_>
          53 33 27 6 -1.</_>
        <_>
          53 35 27 2 3.</_></rects>
      <tilted>0</tilted></_>
    <_>
      <rects>
        <_>
          53 78 6 2 -1.</_>
        <_>
          55 78 2 2 3.</_></rects>
      <tilted>0</tilted></_>
    <_>
      <rects>
        <_>
          54 70 6 10 -1.</_>
        <_>
          56 70 2 10 3.</_></rects>
      <tilted>0</tilted></_>
    <_>
      <rects>
        <_>
          55 0 3 66 -1.</_>
        <_>
          56 0 1 66 3.</_></rects>
      <tilted>0</tilted></_>
    <_>
      <rects>
        <_>
          55 4 19 3 -1.</_>
        <_>
          55 5 19 1 3.</_></rects>
      <tilted>0</tilted></_>
    <_>
      <rects>
        <_>
          55 11 24 44 -1.</_>
        <_>
          67 11 12 44 2.</_></rects>
      <tilted>0</tilted></_>
    <_>
      <rects>
        <_>
          56 2 3 36 -1.</_>
        <_>
          57 2 1 36 3.</_></rects>
      <tilted>0</tilted></_>
    <_>
      <rects>
        <_>
          58 23 16 20 -1.</_>
        <_>
          58 23 8 10 2.</_>
        <_>
          66 33 8 10 2.</_></rects>
      <tilted>0</tilted></_>
    <_>
      <rects>
        <_>
          59 32 16 48 -1.</_>
        <_>
          59 32 8 24 2.</_>
        <_>
          67 56 8 24 2.</_></rects>
      <tilted>0</tilted></_>
    <_>
      <rects>
        <_>
          60 5 4 3 -1.</_>
        <_>
          62 5 2 3 2.</_></rects>
      <tilted>0</tilted></_>
    <_>
      <rects>
        <_>
          61 16 3 1 -1.</_>
        <_>
          62 16 1 1 3.</_></rects>
      <tilted>0</tilted></_>
    <_>
      <rects>
        <_>
          62 17 10 32 -1.</_>
        <_>
          62 17 5 16 2.</_>
        <_>
          67 33 5 16 2.</_></rects>
      <tilted>0</tilted></_>
    <_>
      <rects>
        <_>
          63 3 5 4 -1.</_>
        <_>
          63 5 5 2 2.</_></rects>
      <tilted>0</tilted></_>
    <_>
      <rects>
        <_>
          64 2 3 23 -1.</_>
        <_>
          65 2 1 23 3.</_></rects>
      <tilted>0</tilted></_>
    <_>
      <rects>
        <_>
          65 37 3 4 -1.</_>
        <_>
          66 37 1 4 3.</_></rects>
      <tilted>0</tilted></_>
    <_>
      <rects>
        <_>
          68 53 8 2 -1.</_>
        <_>
          68 54 8 1 2.</_></rects>
      <tilted>0</tilted></_>
    <_>
      <rects>
        <_>
          69 11 3 69 -1.</_>
        <_>
          70 11 1 69 3.</_></rects>
      <tilted>0</tilted></_>
    <_>
      <rects>
        <_>
          69 18 3 38 -1.</_>
        <_>
          70 18 1 38 3.</_></rects>
      <tilted>0</tilted></_>
    <_>
      <rects>
        <_>
          69 52 2 3 -1.</_>
        <_>
          69 53 2 1 3.</_></rects>
      <tilted>0</tilted></_>
    <_>
      <rects>
        <_>
          70 35 2 3 -1.</_>
        <_>
          70 36 2 1 3.</_></rects>
      <tilted>0</tilted></_>
    <_>
      <rects>
        <_>
          72 5 7 4 -1.</_>
        <_>
          72 7 7 2 2.</_></rects>
      <tilted>0</tilted></_>
    <_>
      <rects>
        <_>
          72 64 3 15 -1.</_>
        <_>
          73 64 1 15 3.</_></rects>
      <tilted>0</tilted></_>
    <_>
      <rects>
        <_>
          73 17 3 63 -1.</_>
        <_>
          74 17 1 63 3.</_></rects>
      <tilted>0</tilted></_>
    <_>
      <rects>
        <_>
          74 44 3 2 -1.</_>
        <_>
          74 45 3 1 2.</_></rects>
      <tilted>0</tilted></_>
    <_>
      <rects>
        <_>
          76 28 3 48 -1.</_>
        <_>
          77 28 1 48 3.</_></rects>
      <tilted>0</tilted></_>
    <_>
      <rects>
        <_>
          77 40 3 31 -1.</_>
        <_>
          78 40 1 31 3.</_></rects>
      <tilted>0</tilted></_>
    <_>
      <rects>
        <_>
          78 49 1 3 -1.</_>
        <_>
          78 50 1 1 3.</_></rects>
      <tilted>0</tilted></_></features></cascade>
</opencv_storage>
