<?xml version="1.0"?>
<opencv_storage>
<stage8>
  <maxWeakCount>9</maxWeakCount>
  <stageThreshold>-9.2146748304367065e-01</stageThreshold>
  <weakClassifiers>
    <_>
      <internalNodes>
        0 -1 23173 -9.5168612897396088e-03</internalNodes>
      <leafValues>
        6.3372093439102173e-01 -4.4224423170089722e-01</leafValues></_>
    <_>
      <internalNodes>
        0 -1 597319 1.8027405021712184e-03</internalNodes>
      <leafValues>
        -2.9862490296363831e-01 7.2293907403945923e-01</leafValues></_>
    <_>
      <internalNodes>
        0 -1 581661 -2.4120062589645386e-03</internalNodes>
      <leafValues>
        7.6859372854232788e-01 -2.0810234546661377e-01</leafValues></_>
    <_>
      <internalNodes>
        0 -1 638464 7.8789703547954559e-03</internalNodes>
      <leafValues>
        -2.2401064634323120e-01 7.1672511100769043e-01</leafValues></_>
    <_>
      <internalNodes>
        0 -1 337857 -5.9303931891918182e-02</internalNodes>
      <leafValues>
        4.8572495579719543e-01 -4.6605738997459412e-01</leafValues></_>
    <_>
      <internalNodes>
        0 -1 474188 1.1728089302778244e-02</internalNodes>
      <leafValues>
        -3.6093011498451233e-01 5.6524705886840820e-01</leafValues></_>
    <_>
      <internalNodes>
        0 -1 216726 -2.6504443958401680e-03</internalNodes>
      <leafValues>
        8.0616170167922974e-01 -2.0975494384765625e-01</leafValues></_>
    <_>
      <internalNodes>
        0 -1 279823 -4.4206492602825165e-03</internalNodes>
      <leafValues>
        5.5818265676498413e-01 -3.2306033372879028e-01</leafValues></_>
    <_>
      <internalNodes>
        0 -1 150682 -2.6807464659214020e-02</internalNodes>
      <leafValues>
        7.5954061746597290e-01 -2.5559553503990173e-01</leafValues></_></weakClassifiers></stage8>
</opencv_storage>
