<?xml version="1.0"?>
<opencv_storage>
<stage12>
  <maxWeakCount>7</maxWeakCount>
  <stageThreshold>-7.8041923046112061e-01</stageThreshold>
  <weakClassifiers>
    <_>
      <internalNodes>
        0 -1 611224 -1.1541359126567841e-03</internalNodes>
      <leafValues>
        1. -3.6798906326293945e-01</leafValues></_>
    <_>
      <internalNodes>
        0 -1 237805 3.3732426818460226e-03</internalNodes>
      <leafValues>
        -3.0170372128486633e-01 7.5843209028244019e-01</leafValues></_>
    <_>
      <internalNodes>
        0 -1 617019 9.9998677615076303e-04</internalNodes>
      <leafValues>
        -2.5223708152770996e-01 9.1048765182495117e-01</leafValues></_>
    <_>
      <internalNodes>
        0 -1 408271 1.0527222184464335e-03</internalNodes>
      <leafValues>
        4.2960867285728455e-01 -6.9617360830307007e-01</leafValues></_>
    <_>
      <internalNodes>
        0 -1 596545 -4.2541138827800751e-02</internalNodes>
      <leafValues>
        5.1834994554519653e-01 -4.7779610753059387e-01</leafValues></_>
    <_>
      <internalNodes>
        0 -1 500478 2.0127100870013237e-03</internalNodes>
      <leafValues>
        -3.8878983259201050e-01 6.0989814996719360e-01</leafValues></_>
    <_>
      <internalNodes>
        0 -1 597513 4.5091478386893868e-04</internalNodes>
      <leafValues>
        -3.5201171040534973e-01 6.6015428304672241e-01</leafValues></_></weakClassifiers></stage12>
</opencv_storage>
